<?xml version="1.0"?>
<opencv_storage>
<opencv_ml_svm>
  <format>3</format>
  <svmType>C_SVC</svmType>
  <kernel>
    <type>RBF</type>
    <gamma>5.0000000000000000e-01</gamma></kernel>
  <C>50.</C>
  <term_criteria><epsilon>1.1920928955078125e-07</epsilon>
    <iterations>1000</iterations></term_criteria>
  <var_count>12</var_count>
  <class_count>5</class_count>
  <class_labels type_id="opencv-matrix">
    <rows>5</rows>
    <cols>1</cols>
    <dt>i</dt>
    <data>
      0 1 2 3 4</data></class_labels>
  <sv_total>43</sv_total>
  <support_vectors>
    <_>
      5.45454547e-02 9.09090862e-02 1.27272725e-01 1.09090909e-01
      1.27272725e-01 0. 9.09090862e-02 7.27272704e-02 7.27272704e-02
      7.27272704e-02 5.45454547e-02 1.27272725e-01</_>
    <_>
      2.24719103e-02 5.61797768e-02 1.68539330e-01 6.74157292e-02
      6.74157292e-02 1.23595506e-01 4.49438207e-02 1.12359552e-02
      1.91011235e-01 1.12359552e-02 1.68539330e-01 6.74157292e-02</_>
    <_>
      4.10958901e-02 9.58904102e-02 6.84931502e-02 8.21917802e-02
      6.84931502e-02 4.10958901e-02 9.58904102e-02 4.10958901e-02
      1.78082198e-01 9.58904102e-02 1.36986300e-01 5.47945201e-02</_>
    <_>
      1.05263159e-01 5.26315793e-02 8.42105299e-02 6.31579012e-02 0.
      1.15789481e-01 4.21052650e-02 9.47368443e-02 1.68421060e-01
      1.15789481e-01 9.47368443e-02 6.31579012e-02</_>
    <_>
      3.12500000e-02 6.25000000e-02 1.40625000e-01 6.25000000e-02
      2.34375000e-01 6.25000000e-02 1.09375000e-01 1.56250000e-02
      1.25000000e-01 3.12500000e-02 6.25000000e-02 6.25000000e-02</_>
    <_>
      2.59740259e-02 1.03896104e-01 5.19480519e-02 9.09090936e-02
      9.09090936e-02 7.79220760e-02 7.79220760e-02 6.49350658e-02
      1.68831170e-01 5.19480519e-02 9.09090936e-02 1.03896104e-01</_>
    <_>
      2.10526325e-02 9.47368443e-02 7.36842155e-02 8.42105299e-02
      8.42105299e-02 6.31579012e-02 6.31579012e-02 2.10526325e-02
      2.73684233e-01 3.15789506e-02 1.15789481e-01 7.36842155e-02</_>
    <_>
      5.47945201e-02 1.36986300e-01 5.47945201e-02 8.21917802e-02
      1.91780820e-01 8.21917802e-02 5.47945201e-02 2.73972601e-02
      1.09589040e-01 4.10958901e-02 6.84931502e-02 9.58904102e-02</_>
    <_>
      1.12676054e-01 5.63380271e-02 1.12676054e-01 4.92957756e-02
      7.74647892e-02 1.19718306e-01 2.81690136e-02 7.74647892e-02
      1.33802816e-01 3.52112651e-02 1.05633803e-01 9.15492922e-02</_>
    <_>
      2.02020202e-02 2.02020202e-02 1.01010099e-01 2.02020202e-02
      5.05050495e-02 9.09090936e-02 4.04040404e-02 6.06060624e-02
      3.13131303e-01 4.04040404e-02 1.71717167e-01 7.07070678e-02</_>
    <_>
      9.90099013e-02 4.95049506e-02 1.58415839e-01 7.92079195e-02
      5.94059378e-02 1.08910888e-01 5.94059378e-02 8.91089067e-02
      1.98019803e-01 2.97029689e-02 4.95049506e-02 1.98019799e-02</_>
    <_>
      1.02362201e-01 3.14960629e-02 1.73228353e-01 7.08661377e-02
      7.87401572e-02 6.29921257e-02 6.29921257e-02 7.08661377e-02
      1.10236220e-01 3.14960629e-02 1.10236220e-01 9.44881886e-02</_>
    <_>
      1.35593221e-01 5.08474559e-02 1.18644066e-01 5.08474559e-02
      1.01694912e-01 4.23728824e-02 3.38983051e-02 7.62711838e-02
      2.03389823e-01 0. 1.10169493e-01 7.62711838e-02</_>
    <_>
      9.42028984e-02 5.79710156e-02 1.66666672e-01 3.62318829e-02
      7.97101483e-02 4.34782617e-02 3.62318829e-02 5.79710156e-02
      2.24637687e-01 3.62318829e-02 5.07246405e-02 1.15942031e-01</_>
    <_>
      4.08163257e-02 4.08163257e-02 6.12244904e-02 1.42857134e-01
      4.08163257e-02 1.22448981e-01 1.42857134e-01 6.12244904e-02
      2.65306115e-01 2.04081628e-02 0. 6.12244904e-02</_>
    <_>
      7.33333379e-02 2.66666673e-02 1.40000001e-01 3.99999991e-02
      6.00000024e-02 1.99999996e-02 5.33333346e-02 4.66666669e-02
      3.40000004e-01 3.33333351e-02 6.66666701e-02 1.00000001e-01</_>
    <_>
      1.38888896e-01 4.16666679e-02 1.31944448e-01 2.08333340e-02
      4.86111119e-02 4.16666679e-02 3.47222239e-02 6.25000000e-02
      2.29166672e-01 2.08333340e-02 1.66666672e-01 6.25000000e-02</_>
    <_>
      2.40000002e-02 9.60000008e-02 1.60000011e-01 7.20000044e-02
      8.80000070e-02 2.40000002e-02 6.40000030e-02 6.40000030e-02
      1.20000005e-01 8.00000057e-02 1.36000007e-01 7.20000044e-02</_>
    <_>
      4.30107526e-02 4.30107526e-02 1.50537640e-01 6.45161271e-02
      3.22580636e-02 9.67741907e-02 1.07526883e-01 7.52688199e-02
      2.36559138e-01 3.22580636e-02 7.52688199e-02 4.30107526e-02</_>
    <_>
      1.00840345e-01 6.72268942e-02 1.42857149e-01 5.88235334e-02
      7.56302550e-02 1.09243706e-01 5.04201725e-02 1.26050428e-01
      5.04201725e-02 7.56302550e-02 9.24369767e-02 5.04201725e-02</_>
    <_>
      7.60869607e-02 7.60869607e-02 2.06521749e-01 4.34782617e-02
      5.43478280e-02 8.69565234e-02 4.34782617e-02 9.78260860e-02
      7.60869607e-02 5.43478280e-02 8.69565234e-02 9.78260860e-02</_>
    <_>
      5.79710156e-02 7.24637657e-02 2.02898562e-01 8.69565234e-02 0.
      8.69565234e-02 1.01449281e-01 7.24637657e-02 8.69565234e-02
      1.01449281e-01 1.15942031e-01 1.44927539e-02</_>
    <_>
      1.02362201e-01 7.87401572e-02 1.33858263e-01 3.93700786e-02
      6.29921257e-02 1.33858263e-01 4.72440943e-02 8.66141766e-02
      1.57480314e-02 4.72440943e-02 1.57480314e-01 9.44881886e-02</_>
    <_>
      4.38596494e-02 1.05263159e-01 1.57894731e-01 3.50877196e-02
      6.14035092e-02 4.38596494e-02 7.01754391e-02 7.01754391e-02
      8.77192989e-02 9.64912325e-02 1.40350878e-01 8.77192989e-02</_>
    <_>
      4.34782617e-02 1.08695656e-01 1.52173921e-01 6.52173907e-02
      7.60869607e-02 4.34782617e-02 9.78260860e-02 8.69565234e-02
      1.19565219e-01 4.34782617e-02 1.30434781e-01 3.26086953e-02</_>
    <_>
      5.82524277e-02 5.82524277e-02 1.45631075e-01 6.79611638e-02
      8.73786435e-02 4.85436916e-02 6.79611638e-02 6.79611638e-02
      1.84466019e-01 2.91262139e-02 1.45631075e-01 3.88349518e-02</_>
    <_>
      9.37500000e-02 9.37500000e-02 1.14583336e-01 6.25000000e-02
      5.20833358e-02 9.37500000e-02 3.12500000e-02 1.56250000e-01
      8.33333358e-02 5.20833358e-02 1.14583336e-01 5.20833358e-02</_>
    <_>
      7.44680837e-02 8.51063803e-02 5.31914867e-02 4.25531901e-02
      9.57446769e-02 5.31914867e-02 4.25531901e-02 1.06382973e-01
      1.80851057e-01 6.38297871e-02 1.59574464e-01 4.25531901e-02</_>
    <_>
      1.08910888e-01 5.94059378e-02 1.38613865e-01 3.96039598e-02
      7.92079195e-02 3.96039598e-02 4.95049506e-02 5.94059378e-02
      2.47524753e-01 3.96039598e-02 9.90099013e-02 3.96039598e-02</_>
    <_>
      2.85714287e-02 2.85714287e-02 4.28571440e-02 4.28571440e-02
      1.42857149e-01 8.57142881e-02 4.28571440e-02 7.14285746e-02
      3.28571439e-01 5.71428575e-02 8.57142881e-02 4.28571440e-02</_>
    <_>
      1.13207549e-01 7.54716992e-02 5.66037744e-02 5.66037744e-02
      9.43396240e-02 3.77358496e-02 3.77358496e-02 9.43396240e-02
      1.98113203e-01 4.71698120e-02 1.60377353e-01 2.83018872e-02</_>
    <_>
      1.38888896e-01 4.62962985e-02 8.33333358e-02 7.40740746e-02
      7.40740746e-02 3.70370373e-02 2.77777780e-02 1.01851851e-01
      1.94444448e-01 6.48148134e-02 1.29629627e-01 2.77777780e-02</_>
    <_>
      8.62068981e-02 6.89655170e-02 8.62068981e-02 8.62068981e-02
      5.17241359e-02 3.44827585e-02 8.62068981e-02 5.17241359e-02
      3.79310340e-01 3.44827585e-02 0. 3.44827585e-02</_>
    <_>
      1.37254909e-01 6.86274543e-02 2.94117667e-02 3.92156877e-02
      1.27450988e-01 2.94117667e-02 2.94117667e-02 9.80392173e-02
      1.47058830e-01 3.92156877e-02 1.66666672e-01 8.82352963e-02</_>
    <_>
      0. 0. 1.11111112e-01 0. 0. 1.11111112e-01 5.55555560e-02 0.
      6.11111104e-01 0. 0. 1.11111112e-01</_>
    <_>
      6.95652142e-02 5.21739125e-02 1.30434781e-01 9.56521705e-02
      8.69565159e-02 6.95652142e-02 7.82608688e-02 1.04347825e-01
      9.56521705e-02 8.69565159e-02 4.34782580e-02 8.69565159e-02</_>
    <_>
      8.73786435e-02 4.85436916e-02 1.55339807e-01 7.76699036e-02
      1.06796116e-01 9.70873833e-02 3.88349518e-02 6.79611638e-02
      1.06796116e-01 5.82524277e-02 6.79611638e-02 8.73786435e-02</_>
    <_>
      8.69565234e-02 2.89855078e-02 7.24637657e-02 1.01449281e-01
      5.79710156e-02 1.15942031e-01 8.69565234e-02 1.01449281e-01
      1.59420297e-01 7.24637657e-02 4.34782617e-02 7.24637657e-02</_>
    <_>
      6.60377368e-02 6.60377368e-02 8.49056616e-02 4.71698120e-02
      9.43396240e-02 7.54716992e-02 8.49056616e-02 6.60377368e-02
      2.35849053e-01 6.60377368e-02 5.66037744e-02 5.66037744e-02</_>
    <_>
      5.74712642e-02 8.04597735e-02 1.03448272e-01 5.74712642e-02
      3.44827585e-02 6.89655170e-02 6.89655170e-02 3.44827585e-02
      1.49425283e-01 6.89655170e-02 2.06896544e-01 6.89655170e-02</_>
    <_>
      7.21649453e-02 5.15463911e-02 9.27835032e-02 7.21649453e-02
      4.12371121e-02 1.13402061e-01 7.21649453e-02 7.21649453e-02
      1.54639170e-01 6.18556663e-02 1.13402061e-01 8.24742243e-02</_>
    <_>
      9.78260860e-02 6.52173907e-02 1.19565219e-01 8.69565234e-02
      7.60869607e-02 8.69565234e-02 7.60869607e-02 5.43478280e-02
      1.19565219e-01 5.43478280e-02 4.34782617e-02 1.19565219e-01</_>
    <_>
      8.91089067e-02 6.93069324e-02 1.08910888e-01 4.95049506e-02
      7.92079195e-02 1.28712863e-01 9.90099013e-02 8.91089067e-02
      1.88118815e-01 6.93069324e-02 1.98019799e-02 9.90098994e-03</_></support_vectors>
  <decision_functions>
    <_>
      <sv_count>12</sv_count>
      <rho>3.7330073626948346e-01</rho>
      <alpha>
        1.4558245768750114e+01 50. 50. 2.2765318653245927e+01 50. 50.
        -50. -50. -50. -1.5556369449644512e+01 -2.1767194972351536e+01
        -50.</alpha>
      <index>
        0 1 3 4 5 6 8 9 11 12 13 14</index></_>
    <_>
      <sv_count>15</sv_count>
      <rho>-8.1975760622391747e-01</rho>
      <alpha>
        50. 50. 50. 50. 2.9714808740619901e+01 1.9372336616719320e+01
        2.3617171918155368e+01 -50. -50. -1.1938638063999424e+01
        -8.5281404177886415e+00 -50. -2.2375387937065132e+00 -50. -50.</alpha>
      <index>
        0 1 2 3 4 5 6 17 18 19 22 23 24 25 27</index></_>
    <_>
      <sv_count>11</sv_count>
      <rho>-2.0702253878432036e-01</rho>
      <alpha>
        4.4788235476622047e+00 4.2460320938834307e+01 50.
        2.5681869948238170e+01 50. -50. -3.0984481873430273e+01 -50.
        -8.2364885389571079e+00 -9.3662177677137120e+00
        -2.4033826254633588e+01</alpha>
      <index>
        1 2 3 4 6 28 29 30 31 32 33</index></_>
    <_>
      <sv_count>14</sv_count>
      <rho>-9.2589127469910559e-01</rho>
      <alpha>
        50. 50. 50. 50. 3.7480537103327705e+01 50.
        2.8737657800734304e+00 9.6456971165988552e+00 -50. -50. -50.
        -50. -50. -50.</alpha>
      <index>
        0 1 2 3 4 5 6 7 35 36 38 39 40 41</index></_>
    <_>
      <sv_count>15</sv_count>
      <rho>-9.1236816082327699e-02</rho>
      <alpha>
        50. 2.9618874385718236e+01 50. 50. 2.0706604615849930e+01
        4.3949058509061123e+00 8.1837378654183208e+00
        2.1295332021270529e+01 -50. -1.8314392330633936e+01 -50.
        -5.4121547350878565e+00 -50. -1.0472907673441332e+01 -50.</alpha>
      <index>
        8 9 10 11 12 13 14 16 18 19 20 22 25 26 27</index></_>
    <_>
      <sv_count>14</sv_count>
      <rho>3.0223051233948546e+00</rho>
      <alpha>
        50. 1.8155671731002137e+01 50. 2.3052555079332247e+01 50. 50.
        50. -50. -2.9289409402446922e+00 -50. -50.
        -4.7046142125721104e+01 -50. -4.1233143744368583e+01</alpha>
      <index>
        9 10 12 13 14 15 16 28 29 30 31 32 33 34</index></_>
    <_>
      <sv_count>14</sv_count>
      <rho>-4.8769012443419524e-01</rho>
      <alpha>
        50. 1.1341939189530528e+01 50. 50. 3.6691656486826339e+01
        4.9741683217932959e+01 50. -50. -1.8797043267508538e+01 -50.
        -2.8978235626781288e+01 -50. -50. -50.</alpha>
      <index>
        8 9 10 11 12 13 14 36 37 38 39 40 41 42</index></_>
    <_>
      <sv_count>9</sv_count>
      <rho>-5.3690120672234554e-02</rho>
      <alpha>
        50. 50. 2.7275245871972309e+01 50. -50. -1.5920051580925685e+01
        -50. -50. -1.1355194291046637e+01</alpha>
      <index>
        18 25 26 27 28 29 30 31 33</index></_>
    <_>
      <sv_count>16</sv_count>
      <rho>-5.7572420724607054e-01</rho>
      <alpha>
        2.6152406736707572e+01 50. 50. 4.8076739007797187e+01
        8.1422803508955006e+00 1.5359607004911325e+01 50.
        2.5798678102965864e+00 50. -50. -50. -3.0290039259036316e+01
        -50. -50. -2.4550298563942988e+01 -4.5470563087628882e+01</alpha>
      <index>
        17 18 19 20 21 22 25 26 27 35 36 38 39 40 41 42</index></_>
    <_>
      <sv_count>12</sv_count>
      <rho>1.0044845422237329e-02</rho>
      <alpha>
        50. 2.3328316035755268e+01 2.1735394753501609e+01 50.
        3.3650335164256515e+00 1.4417518142362706e+01
        -1.1079040856087012e+01 -5.4407637743753696e+00 -50. -50.
        -7.5744806446931001e+00 -3.8751977172889816e+01</alpha>
      <index>
        28 29 30 31 32 33 36 37 38 39 40 42</index></_></decision_functions></opencv_ml_svm>
</opencv_storage>
