<?xml version="1.0"?>
<opencv_storage>
<opencv_ml_svm>
  <format>3</format>
  <svmType>C_SVC</svmType>
  <kernel>
    <type>RBF</type>
    <gamma>5.0000000000000000e-01</gamma></kernel>
  <C>50.</C>
  <term_criteria><epsilon>1.1920928955078125e-07</epsilon>
    <iterations>1000</iterations></term_criteria>
  <var_count>12</var_count>
  <class_count>3</class_count>
  <class_labels type_id="opencv-matrix">
    <rows>3</rows>
    <cols>1</cols>
    <dt>i</dt>
    <data>
      0 1 2</data></class_labels>
  <sv_total>117</sv_total>
  <support_vectors>
    <_>
      8.73983726e-02 3.65853645e-02 2.64227632e-02 6.91056848e-02
      3.45528424e-02 6.50406480e-02 1.62601620e-02 1.82926822e-02
      1.72764227e-01 1.23983733e-01 1.32113814e-01 2.17479661e-01</_>
    <_>
      1.75953079e-02 9.67741907e-02 7.03812316e-02 1.14369504e-01
      9.09090936e-02 7.33137801e-02 8.50439891e-02 7.91788846e-02
      1.29032254e-01 1.20234601e-01 6.15835786e-02 6.15835786e-02</_>
    <_>
      8.35579485e-02 6.73854426e-02 5.39083555e-02 6.19946085e-02
      7.27762803e-02 1.23989217e-01 7.54716992e-02 6.73854426e-02
      1.48247972e-01 7.81671107e-02 8.89487863e-02 7.81671107e-02</_>
    <_>
      7.22543299e-02 8.67052004e-02 6.35838136e-02 1.15606934e-01
      8.67052004e-02 1.35838151e-01 7.51445070e-02 1.06936410e-01
      4.04624268e-02 1.30057797e-01 3.17919068e-02 5.49132936e-02</_>
    <_>
      8.38150233e-02 6.93641603e-02 6.93641603e-02 9.82658938e-02
      8.95953774e-02 1.06936410e-01 9.53757167e-02 1.04046240e-01
      5.20231202e-02 1.30057797e-01 4.62427735e-02 5.49132936e-02</_>
    <_>
      8.88888910e-02 7.22222254e-02 7.50000030e-02 1.19444445e-01
      9.16666687e-02 1.00000001e-01 8.88888910e-02 9.16666687e-02
      3.88888903e-02 1.47222221e-01 4.44444455e-02 4.16666679e-02</_>
    <_>
      2.12765951e-02 1.27659574e-01 1.06382973e-01 1.27659574e-01
      1.06382973e-01 6.38297871e-02 0. 2.12765951e-02 1.91489354e-01
      1.06382973e-01 6.38297871e-02 6.38297871e-02</_>
    <_>
      0. 1.53846160e-01 7.69230798e-02 1.79487184e-01 1.53846160e-01
      5.12820520e-02 0. 2.56410260e-02 1.53846160e-01 7.69230798e-02
      7.69230798e-02 5.12820520e-02</_>
    <_>
      0. 1.38888896e-01 1.11111112e-01 1.38888896e-01 2.22222224e-01
      2.77777780e-02 2.77777780e-02 2.77777780e-02 8.33333358e-02
      1.11111112e-01 2.77777780e-02 8.33333358e-02</_>
    <_>
      0. 1.27272725e-01 1.09090909e-01 1.09090909e-01 9.09090862e-02
      2.18181819e-01 9.09090862e-02 9.09090862e-02 7.27272704e-02
      5.45454547e-02 1.81818176e-02 1.81818176e-02</_>
    <_>
      2.08333340e-02 1.87500000e-01 1.94444448e-01 9.72222239e-02
      1.59722224e-01 9.72222239e-02 4.86111119e-02 5.55555560e-02
      2.77777780e-02 4.16666679e-02 1.38888890e-02 5.55555560e-02</_>
    <_>
      8.47457629e-03 1.77966103e-01 1.44067794e-01 1.18644066e-01
      2.03389823e-01 4.23728824e-02 3.38983051e-02 7.62711838e-02
      2.54237279e-02 3.38983051e-02 3.38983051e-02 1.01694912e-01</_>
    <_>
      9.99999978e-03 1.70000002e-01 2.19999999e-01 8.99999961e-02
      2.50000000e-01 4.99999970e-02 4.99999970e-02 7.99999982e-02
      9.99999978e-03 2.99999993e-02 3.99999991e-02 0.</_>
    <_>
      1.94174759e-02 6.79611638e-02 1.16504855e-01 2.91262139e-02
      1.65048540e-01 2.42718443e-01 8.73786435e-02 5.82524277e-02
      3.88349518e-02 5.82524277e-02 2.91262139e-02 8.73786435e-02</_>
    <_>
      3.57142873e-02 1.96428582e-01 7.14285746e-02 6.25000000e-02
      1.25000000e-01 1.96428582e-01 8.03571492e-02 5.35714328e-02
      2.67857164e-02 2.67857164e-02 3.57142873e-02 8.92857164e-02</_>
    <_>
      4.06504087e-02 7.31707364e-02 7.58807585e-02 9.21409205e-02
      8.94308984e-02 1.65311649e-01 8.94308984e-02 1.13821141e-01
      7.31707364e-02 9.75609794e-02 4.87804897e-02 4.06504087e-02</_>
    <_>
      4.10557166e-02 7.03812316e-02 5.27859256e-02 8.21114331e-02
      4.69208211e-02 1.55425221e-01 9.97067466e-02 9.97067466e-02
      9.67741907e-02 1.26099706e-01 8.21114331e-02 4.69208211e-02</_>
    <_>
      3.57142836e-02 6.12244904e-02 6.37755096e-02 9.43877548e-02
      6.63265288e-02 1.86224490e-01 9.94897932e-02 9.69387740e-02
      7.90816322e-02 9.94897932e-02 7.14285672e-02 4.59183678e-02</_>
    <_>
      4.86486480e-02 6.48648664e-02 7.56756812e-02 1.05405405e-01
      7.56756812e-02 1.59459457e-01 7.83783793e-02 7.83783793e-02
      7.83783793e-02 1.43243253e-01 5.13513535e-02 4.05405425e-02</_>
    <_>
      1.00558653e-01 8.37988779e-02 4.46927361e-02 1.36871502e-01
      9.77653638e-02 7.82122910e-02 9.49720666e-02 7.26256967e-02
      5.02793267e-02 1.11731842e-01 8.10055807e-02 4.74860333e-02</_>
    <_>
      1.62601620e-02 2.11382106e-01 1.95121944e-01 8.94308910e-02
      1.46341458e-01 5.69105670e-02 4.87804860e-02 8.94308910e-02
      6.50406480e-02 3.25203240e-02 1.62601620e-02 3.25203240e-02</_>
    <_>
      1.63934417e-02 1.88524574e-01 1.31147534e-01 1.06557369e-01
      1.22950815e-01 8.19672085e-03 4.91803251e-02 4.09836024e-02
      1.22950815e-01 6.55737668e-02 6.55737668e-02 8.19672048e-02</_>
    <_>
      3.18471342e-02 1.01910830e-01 9.55414027e-02 3.82165611e-02
      1.33757964e-01 1.97452232e-01 8.28025490e-02 1.08280256e-01
      6.36942685e-02 3.82165611e-02 2.54777074e-02 8.28025490e-02</_>
    <_>
      1.78571437e-02 1.33928582e-01 1.42857149e-01 1.16071433e-01
      1.69642866e-01 1.16071433e-01 4.46428582e-02 5.35714328e-02
      7.14285746e-02 6.25000000e-02 1.78571437e-02 5.35714328e-02</_>
    <_>
      0. 2.05128208e-01 2.30769232e-01 6.41025677e-02 1.02564104e-01
      2.56410260e-02 5.12820520e-02 8.97435918e-02 6.41025677e-02
      3.84615399e-02 2.56410260e-02 1.02564104e-01</_>
    <_>
      5.47263660e-02 3.98009941e-02 1.99004970e-02 4.97512445e-02
      1.99004970e-02 1.74129352e-01 9.95024890e-02 1.04477607e-01
      9.45273638e-02 4.47761193e-02 1.44278601e-01 1.54228851e-01</_>
    <_>
      8.70967731e-02 7.74193555e-02 4.83870953e-02 7.74193555e-02
      9.67741907e-02 9.67741907e-02 9.03225765e-02 1.25806451e-01
      6.12903200e-02 9.03225765e-02 1.00000001e-01 4.83870953e-02</_>
    <_>
      8.55457187e-02 6.19469024e-02 7.66961649e-02 9.43952799e-02
      7.66961649e-02 1.12094395e-01 1.12094395e-01 1.00294985e-01
      4.42477874e-02 1.09144539e-01 7.66961649e-02 5.01474924e-02</_>
    <_>
      6.34920597e-02 8.20105821e-02 6.61375672e-02 8.46560821e-02
      9.78835970e-02 1.58730149e-01 9.78835970e-02 8.46560821e-02
      5.55555522e-02 7.67195746e-02 7.40740746e-02 5.82010560e-02</_>
    <_>
      5.00000007e-02 1.00000001e-01 1.50000006e-01 2.50000004e-02
      1.25000000e-01 2.50000000e-01 5.00000007e-02 7.50000030e-02 0.
      1.25000000e-01 2.50000004e-02 2.50000004e-02</_>
    <_>
      0. 8.69565234e-02 1.30434781e-01 0. 1.73913047e-01 4.34782624e-01
      8.69565234e-02 4.34782617e-02 0. 4.34782617e-02 0. 0.</_>
    <_>
      5.00000007e-02 8.43750015e-02 8.12500045e-02 1.00000001e-01
      9.06250030e-02 1.34375006e-01 8.43750015e-02 5.00000007e-02
      1.09375000e-01 9.06250030e-02 6.25000000e-02 6.25000000e-02</_>
    <_>
      5.63380271e-02 3.52112651e-02 9.15492922e-02 4.22535203e-02
      7.04225339e-03 2.53521115e-01 1.12676054e-01 1.19718306e-01
      4.92957756e-02 8.45070407e-02 3.52112651e-02 1.12676054e-01</_>
    <_>
      7.04225302e-02 7.60563388e-02 6.19718283e-02 1.15492955e-01
      8.45070407e-02 1.12676054e-01 1.01408444e-01 7.60563388e-02
      3.66197154e-02 1.43661961e-01 7.04225302e-02 5.07042222e-02</_>
    <_>
      8.51063803e-02 6.64893612e-02 5.58510609e-02 1.19680844e-01
      9.30851027e-02 1.03723399e-01 8.24468061e-02 9.04255286e-02
      4.52127643e-02 1.35638297e-01 7.18085095e-02 5.05319126e-02</_>
    <_>
      7.56302550e-02 8.68347362e-02 7.56302550e-02 1.26050428e-01
      8.96358564e-02 1.23249300e-01 7.56302550e-02 8.40336159e-02
      4.20168079e-02 1.12044819e-01 6.44257739e-02 4.48179282e-02</_>
    <_>
      0. 1.00000009e-01 8.33333358e-02 1.00000009e-01 1.50000006e-01
      2.00000018e-01 6.66666701e-02 1.16666675e-01 1.00000009e-01
      1.66666675e-02 0. 6.66666701e-02</_>
    <_>
      3.33333351e-02 1.20000005e-01 2.26666674e-01 6.66666701e-02
      1.53333336e-01 1.20000005e-01 7.33333379e-02 3.99999991e-02
      3.99999991e-02 1.33333337e-02 1.99999996e-02 9.33333337e-02</_>
    <_>
      6.60377368e-02 1.55660376e-01 1.46226421e-01 5.66037744e-02
      9.43396240e-02 9.90566015e-02 4.24528308e-02 1.88679248e-02
      1.22641511e-01 4.71698120e-02 2.35849060e-02 1.27358496e-01</_>
    <_>
      5.98290637e-02 1.28205135e-01 1.06837615e-01 2.99145319e-02
      1.06837615e-01 8.11965838e-02 6.41025677e-02 3.41880359e-02
      1.19658127e-01 2.99145319e-02 6.83760718e-02 1.70940176e-01</_>
    <_>
      1.10655732e-01 9.42622870e-02 8.19672048e-02 5.73770478e-02
      7.78688490e-02 6.96721300e-02 3.27868834e-02 3.27868834e-02
      1.72131136e-01 6.14754073e-02 5.73770478e-02 1.51639342e-01</_>
    <_>
      5.38720526e-02 3.70370373e-02 4.37710434e-02 5.38720526e-02
      6.73400685e-02 2.08754197e-01 8.08080807e-02 9.76430923e-02
      1.11111112e-01 7.40740746e-02 1.07744105e-01 6.39730617e-02</_>
    <_>
      5.78947403e-02 7.36842155e-02 7.89473727e-02 1.13157898e-01
      8.68421122e-02 1.10526323e-01 8.15789476e-02 6.05263188e-02
      1.39473692e-01 9.73684266e-02 4.73684222e-02 5.26315793e-02</_>
    <_>
      5.76923117e-02 1.00961544e-01 9.85576957e-02 9.13461596e-02
      1.12980776e-01 1.41826928e-01 3.60576920e-02 5.52884638e-02
      5.76923117e-02 1.05769232e-01 5.28846160e-02 8.89423117e-02</_>
    <_>
      2.81690136e-02 5.98591529e-02 7.04225302e-02 7.04225302e-02
      9.85915512e-02 2.78169006e-01 3.16901393e-02 5.63380271e-02
      8.80281702e-02 8.09859112e-02 8.45070407e-02 5.28169014e-02</_>
    <_>
      4.08805013e-02 1.13207541e-01 7.54716992e-02 7.86163509e-02
      9.74842757e-02 1.25786155e-01 5.34591191e-02 8.80503133e-02
      1.00628927e-01 7.86163509e-02 7.54716992e-02 7.23270401e-02</_>
    <_>
      3.91061455e-02 1.06145248e-01 8.37988779e-02 8.37988779e-02
      8.37988779e-02 2.48603344e-01 4.74860333e-02 4.18994389e-02
      8.65921751e-02 5.30726239e-02 7.82122910e-02 4.74860333e-02</_>
    <_>
      3.91566232e-02 9.63855386e-02 8.73493925e-02 9.03614461e-02
      9.03614461e-02 1.89759031e-01 5.12048155e-02 5.42168655e-02
      8.13253000e-02 7.53012002e-02 6.62650615e-02 7.83132464e-02</_>
    <_>
      5.72792366e-02 9.30787623e-02 8.59188586e-02 7.87589550e-02
      1.07398570e-01 1.50358006e-01 8.59188586e-02 7.15990514e-02
      4.29594293e-02 9.30787623e-02 6.92124143e-02 6.44391403e-02</_>
    <_>
      6.35696873e-02 8.31295848e-02 7.09046498e-02 7.82396123e-02
      1.19804405e-01 1.58924207e-01 7.82396123e-02 6.35696873e-02
      5.13447449e-02 7.33496398e-02 7.33496398e-02 8.55745748e-02</_>
    <_>
      6.26865700e-02 8.65671635e-02 8.35820884e-02 8.65671635e-02
      1.01492539e-01 1.70149252e-01 7.76119381e-02 9.55223888e-02
      3.58208939e-02 8.05970132e-02 8.35820884e-02 3.58208939e-02</_>
    <_>
      4.60048430e-02 9.92736146e-02 8.71670768e-02 7.99031481e-02
      1.01694919e-01 1.88861996e-01 5.08474596e-02 6.53753057e-02
      8.23244601e-02 6.53753057e-02 7.50605389e-02 5.81113845e-02</_>
    <_>
      8.57908875e-02 6.70241341e-02 8.04289579e-02 9.11528170e-02
      1.09919578e-01 1.63538873e-01 5.89812361e-02 6.43431693e-02
      5.63002713e-02 6.43431693e-02 7.77479932e-02 8.04289579e-02</_>
    <_>
      3.03030312e-02 7.79220760e-02 7.35930726e-02 7.35930726e-02
      1.16883114e-01 2.64069259e-01 6.06060624e-02 6.92640692e-02
      6.06060624e-02 7.79220760e-02 6.92640692e-02 2.59740259e-02</_>
    <_>
      7.14285746e-02 1.14285722e-01 1.02380954e-01 8.57142881e-02
      1.00000001e-01 1.26190484e-01 5.47619052e-02 6.19047657e-02
      5.23809530e-02 9.76190493e-02 5.95238134e-02 7.38095269e-02</_>
    <_>
      4.07608710e-02 5.97826093e-02 6.25000000e-02 8.15217420e-02
      1.11413047e-01 2.11956531e-01 8.96739140e-02 7.88043514e-02
      5.16304374e-02 9.78260860e-02 6.52173907e-02 4.89130430e-02</_>
    <_>
      6.45161271e-02 8.29493105e-02 6.91244230e-02 6.22119829e-02
      1.15207374e-01 1.35944694e-01 8.29493105e-02 8.75576064e-02
      7.60368630e-02 9.21659023e-02 8.29493105e-02 4.83870953e-02</_>
    <_>
      8.26210827e-02 1.19658120e-01 1.08262107e-01 7.12250695e-02
      1.05413102e-01 1.90883189e-01 2.84900293e-02 4.84330468e-02
      5.98290600e-02 5.69800586e-02 6.55270666e-02 6.26780614e-02</_>
    <_>
      6.14250600e-02 1.25307128e-01 7.86240771e-02 7.61670768e-02
      9.09090862e-02 1.89189181e-01 6.14250600e-02 5.65110557e-02
      4.42260429e-02 9.09090862e-02 6.63390681e-02 5.89680597e-02</_>
    <_>
      7.14285746e-02 1.07142858e-01 1.35714293e-01 1.14285722e-01
      1.19047627e-01 1.23809531e-01 4.28571440e-02 5.95238134e-02
      4.52380963e-02 7.38095269e-02 5.71428612e-02 5.00000007e-02</_>
    <_>
      5.48926033e-02 1.07398570e-01 1.14558473e-01 1.14558473e-01
      1.24105014e-01 1.45584732e-01 5.48926033e-02 5.01193330e-02
      4.77326997e-02 7.39856809e-02 5.72792366e-02 5.48926033e-02</_>
    <_>
      6.35696873e-02 7.57946223e-02 1.07579470e-01 1.10024452e-01
      1.22249395e-01 1.46699280e-01 6.11246973e-02 4.88997586e-02
      6.84596598e-02 8.80195647e-02 5.86797073e-02 4.88997586e-02</_>
    <_>
      8.20312500e-02 1.05468750e-01 1.21093750e-01 5.46875000e-02
      1.28906250e-01 1.25000000e-01 7.03125000e-02 5.46875000e-02
      5.07812500e-02 9.76562500e-02 5.07812500e-02 5.85937500e-02</_>
    <_>
      6.09756075e-02 1.09756097e-01 7.01219514e-02 1.03658535e-01
      9.75609720e-02 1.79878041e-01 5.48780486e-02 5.48780486e-02
      6.40243888e-02 9.45121944e-02 5.79268262e-02 5.18292673e-02</_>
    <_>
      7.55287036e-02 7.85498470e-02 6.64652586e-02 8.15709978e-02
      1.02719031e-01 1.57099694e-01 5.43806627e-02 5.74018136e-02
      7.25075528e-02 1.05740182e-01 6.94864020e-02 7.85498470e-02</_>
    <_>
      4.19947505e-02 9.18635130e-02 7.87401572e-02 6.82414696e-02
      8.92388448e-02 2.12598428e-01 4.19947505e-02 6.82414696e-02
      5.24934381e-02 1.04986876e-01 8.66141766e-02 6.29921257e-02</_>
    <_>
      8.20189267e-02 1.16719246e-01 8.51735026e-02 8.83280784e-02
      1.07255526e-01 1.26182973e-01 4.41640392e-02 5.99369109e-02
      7.57097825e-02 8.51735026e-02 6.62460551e-02 6.30914867e-02</_>
    <_>
      7.66871125e-02 1.19631901e-01 1.16564415e-01 8.28220844e-02
      1.16564415e-01 1.19631901e-01 4.60122675e-02 4.60122675e-02
      4.60122675e-02 1.22699380e-01 4.90797535e-02 5.82822077e-02</_>
    <_>
      6.04651161e-02 9.76744145e-02 1.09302327e-01 1.02325581e-01
      1.06976748e-01 1.60465121e-01 4.18604650e-02 6.27906993e-02
      6.04651161e-02 8.37209299e-02 7.67441839e-02 3.72093022e-02</_>
    <_>
      7.38916248e-02 8.86699483e-02 6.15763552e-02 8.86699483e-02
      1.08374380e-01 1.72413796e-01 6.65024593e-02 6.15763552e-02
      6.65024593e-02 8.37438405e-02 6.40394092e-02 6.40394092e-02</_>
    <_>
      5.99999987e-02 1.25000000e-01 1.07499994e-01 8.99999961e-02
      9.99999940e-02 1.72499999e-01 3.74999978e-02 5.24999984e-02
      4.99999970e-02 8.50000009e-02 4.74999994e-02 7.24999979e-02</_>
    <_>
      7.34966621e-02 1.06904238e-01 9.57683772e-02 9.79955494e-02
      1.18040092e-01 1.26948774e-01 4.23162580e-02 6.23608045e-02
      4.89977747e-02 1.06904238e-01 6.45879731e-02 5.56792878e-02</_>
    <_>
      6.76855892e-02 1.02620088e-01 1.02620088e-01 1.09170310e-01
      1.37554586e-01 1.06986903e-01 5.24017476e-02 5.45851551e-02
      4.58515286e-02 1.04803495e-01 6.55021816e-02 5.02183400e-02</_>
    <_>
      7.51072988e-02 9.44205970e-02 1.03004292e-01 1.05150215e-01
      1.26609445e-01 1.48068666e-01 5.79399131e-02 5.57939932e-02
      4.29184549e-02 1.00858368e-01 4.72102985e-02 4.29184549e-02</_>
    <_>
      6.80628270e-02 1.12565443e-01 9.94764417e-02 8.37696344e-02
      9.94764417e-02 1.88481674e-01 6.28272295e-02 7.59162307e-02
      4.45026197e-02 8.37696344e-02 4.18848172e-02 3.92670147e-02</_>
    <_>
      8.93719792e-02 9.66183543e-02 1.18357487e-01 8.93719792e-02
      1.08695649e-01 1.73913047e-01 5.07246368e-02 6.28019348e-02
      5.55555560e-02 7.48792291e-02 2.89855078e-02 5.07246368e-02</_>
    <_>
      6.93779886e-02 1.02870807e-01 8.85167420e-02 8.85167420e-02
      1.33971289e-01 1.31578937e-01 4.78468873e-02 6.93779886e-02
      5.50239198e-02 9.33014303e-02 7.41626769e-02 4.54545431e-02</_>
    <_>
      8.48708525e-02 6.64206669e-02 7.74907768e-02 1.03321031e-01
      1.54981554e-01 9.96309966e-02 5.90405911e-02 5.90405911e-02
      4.79704812e-02 1.18081182e-01 8.48708525e-02 4.42804433e-02</_>
    <_>
      7.33496398e-02 9.29095373e-02 1.46699280e-01 8.55745748e-02
      1.05134480e-01 1.24694385e-01 6.11246973e-02 5.37897348e-02
      5.37897348e-02 9.04645547e-02 6.35696873e-02 4.88997586e-02</_>
    <_>
      7.46268630e-02 1.04477607e-01 1.21890545e-01 9.45273638e-02
      1.19402982e-01 1.31840795e-01 6.21890537e-02 5.22388034e-02
      5.97014911e-02 7.46268630e-02 4.97512445e-02 5.47263660e-02</_>
    <_>
      3.84615399e-02 9.29487199e-02 7.37179518e-02 1.02564104e-01
      8.01282078e-02 1.47435904e-01 4.80769239e-02 6.08974360e-02
      1.25000000e-01 5.76923080e-02 5.12820520e-02 1.21794872e-01</_>
    <_>
      1.84757505e-02 4.84988466e-02 5.77367209e-02 4.84988466e-02
      4.61893752e-02 7.85219371e-02 3.92609686e-02 3.23325619e-02
      3.21016163e-01 4.61893752e-02 6.00461885e-02 2.03233257e-01</_>
    <_>
      5.03597148e-02 9.35251787e-02 7.91366920e-02 1.18705042e-01
      6.11510798e-02 1.87050357e-01 3.23741026e-02 5.39568365e-02
      9.35251787e-02 7.91366920e-02 8.27338174e-02 6.83453232e-02</_>
    <_>
      1.38888890e-02 1.25000000e-01 9.37500000e-02 1.00694448e-01
      8.33333358e-02 1.45833328e-01 5.55555560e-02 6.59722239e-02
      1.00694448e-01 5.90277798e-02 6.25000000e-02 9.37500000e-02</_>
    <_>
      5.24344593e-02 7.86516890e-02 8.23970065e-02 5.61797768e-02
      9.73782763e-02 2.13483155e-01 7.49063641e-02 5.24344593e-02
      1.23595506e-01 1.87265910e-02 8.23970065e-02 6.74157292e-02</_>
    <_>
      6.22837394e-02 4.15224917e-02 3.46020758e-02 3.80622856e-02
      4.15224917e-02 1.62629768e-01 4.49827015e-02 4.49827015e-02
      2.21453294e-01 5.19031174e-02 3.80622856e-02 2.17993081e-01</_>
    <_>
      4.03225794e-02 1.20967738e-01 8.87096748e-02 4.83870953e-02
      1.20967738e-01 3.06451619e-01 1.61290318e-02 2.41935477e-02
      7.25806430e-02 3.22580636e-02 4.83870953e-02 8.06451589e-02</_>
    <_>
      5.08474559e-02 1.18644066e-01 7.45762736e-02 1.01694912e-01
      1.01694912e-01 1.35593221e-01 6.77966103e-02 3.38983051e-02
      1.05084747e-01 6.44067824e-02 6.44067824e-02 8.13559294e-02</_>
    <_>
      3.57142873e-02 6.25000000e-02 6.25000000e-02 8.03571492e-02
      1.07142866e-01 2.85714298e-01 6.25000000e-02 5.35714328e-02
      8.92857164e-02 5.35714328e-02 4.46428582e-02 6.25000000e-02</_>
    <_>
      1.47783253e-02 1.42857134e-01 1.08374380e-01 8.37438405e-02
      1.03448272e-01 2.21674874e-01 4.43349741e-02 4.43349741e-02
      5.41871898e-02 7.88177326e-02 4.92610820e-02 5.41871898e-02</_>
    <_>
      3.07692308e-02 7.69230798e-02 6.15384616e-02 3.07692308e-02
      1.23076923e-01 3.38461548e-01 3.07692308e-02 1.53846154e-02 0.
      6.15384616e-02 3.07692308e-02 2.00000003e-01</_>
    <_>
      0. 2.71186441e-01 2.37288132e-01 3.38983051e-02 1.52542368e-01
      1.35593221e-01 3.38983051e-02 0. 5.08474559e-02 3.38983051e-02 0.
      5.08474559e-02</_>
    <_>
      1.07526882e-02 1.18279569e-01 1.29032254e-01 1.18279569e-01
      1.11111112e-01 1.07526883e-01 5.37634417e-02 4.30107526e-02
      8.24372768e-02 4.30107526e-02 9.67741907e-02 8.60215053e-02</_>
    <_>
      2.94117648e-02 1.13970585e-01 1.25000000e-01 9.55882370e-02
      9.55882370e-02 9.19117630e-02 6.61764741e-02 5.88235296e-02
      1.02941178e-01 6.25000000e-02 6.25000000e-02 9.55882370e-02</_>
    <_>
      4.22077924e-02 1.26623377e-01 7.46753216e-02 8.76623392e-02
      7.46753216e-02 1.16883114e-01 7.46753216e-02 4.22077924e-02
      1.16883114e-01 7.14285746e-02 6.81818202e-02 1.03896104e-01</_>
    <_>
      2.70270277e-02 1.41891897e-01 1.14864871e-01 1.21621624e-01
      9.79729742e-02 6.75675720e-02 4.72972989e-02 5.40540554e-02
      1.14864871e-01 6.08108118e-02 6.08108118e-02 9.12162215e-02</_>
    <_>
      3.08219176e-02 9.93150696e-02 8.90410990e-02 9.93150696e-02
      8.21917802e-02 1.19863011e-01 6.84931502e-02 6.16438352e-02
      1.16438359e-01 5.47945201e-02 7.19178095e-02 1.06164381e-01</_>
    <_>
      4.17910442e-02 9.85074639e-02 9.55223888e-02 9.55223888e-02
      8.35820884e-02 1.22388057e-01 4.47761193e-02 6.56716451e-02
      1.16417915e-01 4.47761193e-02 6.86567202e-02 1.22388057e-01</_>
    <_>
      1.42857149e-01 2.85714298e-01 1.42857149e-01 0. 1.42857149e-01
      1.42857149e-01 0. 1.42857149e-01 0. 0. 0. 0.</_>
    <_>
      3.10077518e-02 1.55038759e-01 1.39534891e-01 1.16279066e-01
      7.75193796e-02 3.10077518e-02 6.20155036e-02 6.97674453e-02
      8.52713138e-02 3.87596898e-02 8.52713138e-02 1.08527131e-01</_>
    <_>
      3.48837227e-02 1.12403102e-01 1.20155036e-01 1.43410847e-01
      1.08527131e-01 3.48837227e-02 7.75193796e-02 4.65116277e-02
      7.36434087e-02 1.16279066e-01 4.65116277e-02 8.52713138e-02</_>
    <_>
      2.46153846e-02 9.23076943e-02 8.61538500e-02 1.19999997e-01
      9.84615386e-02 1.13846153e-01 4.92307693e-02 3.99999991e-02
      1.16923079e-01 6.15384616e-02 8.92307684e-02 1.07692309e-01</_>
    <_>
      4.65116277e-02 5.81395328e-02 4.65116277e-02 5.81395328e-02
      3.48837227e-02 3.83720934e-01 6.97674453e-02 6.97674453e-02
      5.81395328e-02 1.16279066e-01 2.32558139e-02 3.48837227e-02</_>
    <_>
      2.94117667e-02 3.92156877e-02 7.84313753e-02 2.94117667e-02
      5.88235334e-02 4.90196109e-01 4.90196086e-02 5.88235334e-02
      1.96078438e-02 8.82352963e-02 2.94117667e-02 2.94117667e-02</_>
    <_>
      1.67224072e-02 1.23745821e-01 9.36454833e-02 1.27090305e-01
      1.13712370e-01 1.07023410e-01 4.34782617e-02 5.35117052e-02
      1.20401338e-01 4.34782617e-02 8.36120397e-02 7.35785961e-02</_>
    <_>
      2.18068529e-02 1.05919003e-01 9.34579372e-02 1.15264796e-01
      1.09034263e-01 1.15264796e-01 4.36137058e-02 3.73831764e-02
      1.09034263e-01 5.29595017e-02 9.65732038e-02 9.96884704e-02</_>
    <_>
      2.43902449e-02 1.35888502e-01 1.35888502e-01 8.01393762e-02
      9.75609794e-02 1.39372826e-01 6.96864128e-02 5.57491295e-02
      3.83275263e-02 9.40766558e-02 7.66550526e-02 5.22648096e-02</_>
    <_>
      2.26537231e-02 1.58576056e-01 1.48867324e-01 1.00323625e-01
      8.41423944e-02 8.73786435e-02 6.79611638e-02 8.41423944e-02
      4.85436916e-02 6.14886768e-02 6.47249222e-02 7.11974129e-02</_>
    <_>
      1.99335553e-02 1.49501652e-01 1.42857134e-01 1.19601324e-01
      8.97009969e-02 8.30564797e-02 6.64451793e-02 5.98006621e-02
      7.30896965e-02 6.97674379e-02 6.64451793e-02 5.98006621e-02</_>
    <_>
      2.70270277e-02 1.38513520e-01 1.18243247e-01 1.52027026e-01
      7.77027011e-02 1.04729734e-01 7.77027011e-02 6.41891882e-02
      6.08108118e-02 8.44594613e-02 6.08108118e-02 3.37837860e-02</_>
    <_>
      1.70068033e-02 1.25850335e-01 1.36054426e-01 1.49659857e-01
      8.84353742e-02 1.02040812e-01 6.80272132e-02 5.10204062e-02
      6.46258518e-02 6.46258518e-02 7.14285672e-02 6.12244904e-02</_>
    <_>
      4.29042913e-02 9.57095772e-02 1.02310233e-01 1.25412539e-01
      9.57095772e-02 1.08910896e-01 6.93069324e-02 4.29042913e-02
      5.94059415e-02 9.57095772e-02 1.02310233e-01 5.94059415e-02</_>
    <_>
      9.34579410e-03 1.43302172e-01 1.18380055e-01 1.71339557e-01
      1.52647972e-01 1.86915882e-02 2.49221176e-02 3.73831764e-02
      1.09034263e-01 8.09968859e-02 4.36137058e-02 9.03426781e-02</_>
    <_>
      1.60771701e-02 1.67202562e-01 1.51125401e-01 1.63987130e-01
      1.60771698e-01 6.10932484e-02 2.89389063e-02 3.21543403e-02
      6.43086806e-02 7.39549845e-02 9.64630209e-03 7.07395524e-02</_>
    <_>
      4.16666679e-02 1.40625000e-01 1.35416672e-01 7.29166716e-02
      5.72916679e-02 1.40625000e-01 5.20833358e-02 5.20833358e-02
      7.29166716e-02 5.72916679e-02 9.37500000e-02 8.33333358e-02</_>
    <_>
      2.45901626e-02 2.13114738e-01 1.39344260e-01 4.91803251e-02
      1.22950815e-01 5.73770478e-02 5.73770478e-02 9.83606502e-02
      8.19672048e-02 5.73770478e-02 1.63934417e-02 8.19672048e-02</_>
    <_>
      2.56410260e-02 1.17948718e-01 1.02564104e-01 1.12820514e-01
      7.69230798e-02 9.23076943e-02 9.23076943e-02 9.74358991e-02
      1.02564104e-01 1.07692309e-01 5.12820529e-03 6.66666701e-02</_></support_vectors>
  <decision_functions>
    <_>
      <sv_count>59</sv_count>
      <rho>-1.2743299773395240e+01</rho>
      <alpha>
        4.4661802463600523e+01 50. 50. 50. 50. 1.4072133980526392e+01
        50. 50. 50. 50. 50. 6.0864711636105122e+00 50. 50. 50.
        7.2510537664428112e+00 50. 50. 50. 50. 50. 50. 50. 50. 50. 50.
        50. 50. 1.5828836541535543e+01 50. -50. -50. -50. -50. -50. -50.
        -50. -3.5892228365957402e+00 -50. -50. -50. -50. -50. -50. -50.
        -50. -50. -50. -50. -50. -2.2766347082048966e+01 -50.
        -4.3124392993511151e+01 -50. -1.9732993397262430e+01 -50.
        -4.8687341606297451e+01 -50. -50.</alpha>
      <index>
        0 2 3 4 5 6 7 10 12 13 14 15 17 18 19 22 23 26 27 28 29 30 31 33
        34 35 37 38 40 41 43 45 47 48 49 50 51 52 54 55 56 59 60 61 62
        63 64 66 67 69 71 72 73 74 75 76 77 78 79</index></_>
    <_>
      <sv_count>60</sv_count>
      <rho>-1.6154621351453486e+00</rho>
      <alpha>
        50. 50. 50. 50. 50. 1.8920570277266545e+01 50. 50. 50. 50. 50.
        50. 50. 50. 50. 50. 50. 50. 4.8251564862802468e+01 50. 50. 50.
        50. 50. 50. 50. 50. 50. 50. -50. -3.6384160078311801e+01
        -2.8451638377850390e+01 -50. -50. -50. -50.
        -1.6610215159331140e+01 -50. -50. -50. -50. -50. -50. -50.
        -3.8836216202213080e+01 -50. -50. -50. -50.
        -1.8124874954321623e+01 -2.8765030368040982e+01 -50. -50. -50.
        -50. -50. -50. -50. -50. -50.</alpha>
      <index>
        0 1 2 6 7 8 9 10 11 14 16 17 18 20 21 23 24 25 30 31 32 35 36 37
        38 39 40 41 42 80 81 83 84 85 87 88 91 92 93 94 95 96 97 98 99
        100 101 102 103 104 105 106 107 108 109 111 112 113 115 116</index></_>
    <_>
      <sv_count>43</sv_count>
      <rho>9.1666047892949614e+00</rho>
      <alpha>
        50. 50. 50. 50. 50. 50. 50. 50. 50. 50. 50. 50. 50. 50. 50.
        5.4168484951308677e+00 9.0410425920049775e+00 50. 50.
        3.3486455446753261e+01 50. -50. -50. -50. -50. -50. -50.
        -3.0762774398714576e+01 -4.7043914297613242e+01 -50. -50. -50.
        -50. -4.5203607222955640e+01 -50. -50. -9.2113216373280826e-01
        -50. -3.5179447085945050e+01 -50. -2.1556096916127645e+00
        -3.6677861673315007e+01 -50.</alpha>
      <index>
        43 44 45 46 47 49 51 53 54 57 58 59 60 63 65 66 68 70 74 75 79
        82 84 86 87 88 89 90 93 98 100 101 102 103 105 106 107 109 110
        111 113 114 116</index></_></decision_functions></opencv_ml_svm>
</opencv_storage>
