<?xml version="1.0"?>
<opencv_storage>
<opencv_ml_svm>
  <format>3</format>
  <svmType>C_SVC</svmType>
  <kernel>
    <type>RBF</type>
    <gamma>5.0000000000000000e-01</gamma></kernel>
  <C>50.</C>
  <term_criteria><epsilon>1.1920928955078125e-07</epsilon>
    <iterations>1000</iterations></term_criteria>
  <var_count>12</var_count>
  <class_count>3</class_count>
  <class_labels type_id="opencv-matrix">
    <rows>3</rows>
    <cols>1</cols>
    <dt>i</dt>
    <data>
      0 1 2</data></class_labels>
  <sv_total>27</sv_total>
  <support_vectors>
    <_>
      1.41210377e-01 1.00864552e-01 5.18731959e-02 4.03458215e-02
      8.93371701e-02 6.91642612e-02 8.35734829e-02 8.93371701e-02
      1.12391926e-01 9.79827046e-02 4.89913523e-02 7.49279484e-02</_>
    <_>
      8.13008100e-02 5.89430854e-02 1.09756097e-01 2.31707305e-01
      2.43902430e-02 8.13008100e-02 6.30081296e-02 5.28455265e-02
      8.53658468e-02 1.82926822e-02 1.76829264e-01 1.62601620e-02</_>
    <_>
      1.34048268e-01 1.20643437e-01 6.16622008e-02 4.28954437e-02
      6.97050989e-02 8.84718522e-02 6.97050989e-02 6.97050989e-02
      1.15281507e-01 8.84718522e-02 6.16622008e-02 7.77479932e-02</_>
    <_>
      1.55425221e-01 7.33137801e-02 7.33137801e-02 3.81231681e-02
      7.91788846e-02 3.22580636e-02 9.67741907e-02 7.91788846e-02
      1.11436948e-01 3.51906158e-02 1.55425221e-01 7.03812316e-02</_>
    <_>
      8.62533674e-02 1.26684636e-01 9.43396240e-02 8.62533674e-02
      6.19946085e-02 7.54716992e-02 7.27762803e-02 5.66037707e-02
      7.54716992e-02 5.39083555e-02 1.67115897e-01 4.31266837e-02</_>
    <_>
      1.38728321e-01 1.32947981e-01 3.17919068e-02 4.91329469e-02
      1.04046240e-01 8.67052004e-02 8.95953774e-02 7.22543299e-02
      1.24277458e-01 7.51445070e-02 4.91329469e-02 4.62427735e-02</_>
    <_>
      1.46964848e-01 1.56549513e-01 7.98722059e-02 1.91693287e-02
      6.07028753e-02 4.47284356e-02 1.24600634e-01 1.56549513e-01
      6.70926496e-02 5.43130971e-02 5.43130971e-02 3.51437703e-02</_>
    <_>
      1.32307693e-01 1.75384611e-01 5.23076914e-02 5.84615394e-02
      5.84615394e-02 7.69230798e-02 9.23076943e-02 1.04615383e-01
      8.30769241e-02 3.69230770e-02 9.23076943e-02 3.69230770e-02</_>
    <_>
      1.50406495e-01 1.62601620e-01 4.87804860e-02 4.47154455e-02
      4.87804860e-02 7.72357732e-02 1.26016259e-01 1.17886171e-01
      8.13008100e-02 4.87804860e-02 5.28455265e-02 4.06504050e-02</_>
    <_>
      1.36138618e-01 1.48514852e-01 4.45544533e-02 6.43564314e-02
      5.44554442e-02 5.69306910e-02 1.13861382e-01 1.33663371e-01
      9.40594077e-02 5.94059378e-02 5.94059378e-02 3.46534662e-02</_>
    <_>
      1.57142863e-01 2.64285713e-01 7.85714313e-02 3.57142873e-02
      5.35714291e-02 2.50000004e-02 6.78571463e-02 1.07142858e-01
      6.07142858e-02 2.85714287e-02 8.57142881e-02 3.57142873e-02</_>
    <_>
      1.64037853e-01 1.29337549e-01 6.30914867e-02 5.67823350e-02
      7.88643584e-02 4.10094634e-02 1.10410094e-01 9.77917984e-02
      5.99369109e-02 6.94006309e-02 1.00946374e-01 2.83911675e-02</_>
    <_>
      1.25000000e-01 1.14864871e-01 1.04729734e-01 1.01351351e-01
      3.37837860e-02 4.72972989e-02 8.44594613e-02 1.08108111e-01
      6.75675720e-02 3.71621624e-02 1.14864871e-01 6.08108118e-02</_>
    <_>
      1.38121545e-01 2.51381218e-01 7.45856389e-02 4.14364673e-02
      4.14364673e-02 3.31491716e-02 1.10497244e-01 8.83977935e-02
      4.41988967e-02 5.52486219e-02 8.83977935e-02 3.31491716e-02</_>
    <_>
      1.58208951e-01 1.94029853e-01 6.86567202e-02 5.37313446e-02
      3.58208939e-02 3.58208939e-02 1.01492539e-01 1.10447764e-01
      4.77611944e-02 7.46268630e-02 8.05970132e-02 3.88059691e-02</_>
    <_>
      1.27516776e-01 1.77852347e-01 4.69798669e-02 6.04026839e-02
      4.69798669e-02 3.02013420e-02 1.24161072e-01 1.20805368e-01
      5.70469797e-02 8.05369169e-02 8.72483253e-02 4.02684584e-02</_>
    <_>
      1.50159746e-01 1.30990416e-01 5.43130971e-02 1.18210860e-01
      5.11182100e-02 3.51437703e-02 8.62619802e-02 7.98722059e-02
      5.11182100e-02 8.30670893e-02 1.08626194e-01 5.11182100e-02</_>
    <_>
      1.38461545e-01 1.53846160e-01 4.61538471e-02 1.29230767e-01
      4.30769250e-02 3.99999991e-02 6.15384616e-02 8.61538500e-02
      5.23076914e-02 7.38461539e-02 1.41538456e-01 3.38461548e-02</_>
    <_>
      7.62124732e-02 7.62124732e-02 4.84988466e-02 2.14780599e-01
      3.23325619e-02 2.07852200e-02 6.23556562e-02 5.77367209e-02
      3.46420333e-02 3.23325619e-02 3.18706691e-01 2.54041571e-02</_>
    <_>
      1.28813565e-01 2.06779659e-01 6.77966103e-02 6.10169470e-02
      4.74576280e-02 3.72881368e-02 1.08474575e-01 1.05084747e-01
      4.06779647e-02 7.45762736e-02 7.79661015e-02 4.40677963e-02</_>
    <_>
      1.63194448e-01 1.35416672e-01 4.86111119e-02 7.63888881e-02
      5.55555560e-02 1.38888890e-02 1.28472224e-01 1.11111112e-01
      5.55555560e-02 7.29166642e-02 9.02777761e-02 4.86111119e-02</_>
    <_>
      1.14754096e-01 1.80327863e-01 6.96721300e-02 5.73770478e-02
      6.96721300e-02 6.96721300e-02 7.37704858e-02 8.60655680e-02
      4.50819656e-02 6.55737668e-02 1.10655732e-01 5.73770478e-02</_>
    <_>
      5.60747646e-02 2.57009327e-01 4.67289686e-02 9.34579372e-02
      5.14018685e-02 6.07476607e-02 1.07476629e-01 1.02803737e-01
      6.54205605e-02 4.20560725e-02 7.47663528e-02 4.20560725e-02</_>
    <_>
      9.73154381e-02 1.34228185e-01 8.72483253e-02 1.07382551e-01
      4.02684584e-02 2.68456377e-02 1.34228185e-01 1.20805368e-01
      4.36241627e-02 7.38255009e-02 9.39597338e-02 4.02684584e-02</_>
    <_>
      1.13636367e-01 3.10606062e-01 3.78787890e-02 5.30303046e-02
      4.54545468e-02 3.78787890e-02 1.21212125e-01 7.57575780e-02
      2.27272734e-02 4.54545468e-02 9.09090936e-02 4.54545468e-02</_>
    <_>
      1.56996578e-01 1.33105800e-01 7.16723502e-02 7.50853196e-02
      3.41296904e-02 4.43685986e-02 1.29692823e-01 9.55631360e-02
      4.09556292e-02 7.50853196e-02 9.55631360e-02 4.77815680e-02</_>
    <_>
      1.23152710e-01 2.11822659e-01 3.94088663e-02 3.44827585e-02
      4.92610820e-02 1.97044332e-02 1.42857134e-01 1.37931034e-01
      5.41871898e-02 1.08374380e-01 4.92610820e-02 2.95566507e-02</_></support_vectors>
  <decision_functions>
    <_>
      <sv_count>11</sv_count>
      <rho>-7.8779463099492575e-01</rho>
      <alpha>
        50. 1.1571896177308627e+01 4.3712652003816679e+01
        3.9565203361983095e+01 50. 50. -50. -4.4849751543108397e+01 -50.
        -50. -50.</alpha>
      <index>
        0 1 2 3 4 5 7 8 9 11 12</index></_>
    <_>
      <sv_count>12</sv_count>
      <rho>-4.3865975967012340e-02</rho>
      <alpha>
        50. 50. 50. 50. 2.6856959451282176e+01 -50.
        -7.2571773003821827e-01 -3.7948142347892578e+01
        -2.5299456808803694e+01 -50. -1.2883642564547699e+01 -50.</alpha>
      <index>
        0 1 3 4 5 16 17 18 20 21 23 25</index></_>
    <_>
      <sv_count>20</sv_count>
      <rho>2.9970592664967488e-01</rho>
      <alpha>
        4.9836609990364813e+01 50. 50. 50. 50. 50. 50. 50. 50. -50. -50.
        -1.1590233548555485e+01 -50. -50. -50. -50.
        -1.8033243381726734e+01 -2.0213133060082598e+01 -50. -50.</alpha>
      <index>
        6 7 8 9 10 11 12 13 14 15 16 17 19 20 21 22 23 24 25 26</index></_></decision_functions></opencv_ml_svm>
</opencv_storage>
