<?xml version="1.0"?>
<opencv_storage>
<opencv_ml_svm>
  <format>3</format>
  <svmType>C_SVC</svmType>
  <kernel>
    <type>RBF</type>
    <gamma>5.0000000000000000e-01</gamma></kernel>
  <C>50.</C>
  <term_criteria><epsilon>1.1920928955078125e-07</epsilon>
    <iterations>1000</iterations></term_criteria>
  <var_count>12</var_count>
  <class_count>5</class_count>
  <class_labels type_id="opencv-matrix">
    <rows>5</rows>
    <cols>1</cols>
    <dt>i</dt>
    <data>
      0 1 2 3 4</data></class_labels>
  <sv_total>51</sv_total>
  <support_vectors>
    <_>
      5.64516112e-02 1.45161286e-01 1.16935477e-01 6.85483813e-02
      6.85483813e-02 6.85483813e-02 1.04838707e-01 8.06451589e-02
      2.01612897e-02 6.85483813e-02 1.00806445e-01 1.00806445e-01</_>
    <_>
      1.90647483e-01 1.07913673e-01 5.75539581e-02 1.76258996e-01
      8.27338174e-02 8.99280608e-02 5.75539581e-02 5.39568365e-02
      5.39568365e-02 3.23741026e-02 5.39568365e-02 4.31654677e-02</_>
    <_>
      1.42180100e-01 1.23222753e-01 9.00473967e-02 4.73933667e-02
      6.63507134e-02 7.58293867e-02 5.68720400e-02 6.63507134e-02
      9.47867334e-02 3.79146934e-02 1.04265407e-01 9.47867334e-02</_>
    <_>
      1.90721646e-01 7.47422650e-02 1.44329891e-01 9.27835032e-02
      8.50515440e-02 6.70103058e-02 5.41237108e-02 5.41237108e-02
      4.89690714e-02 4.89690714e-02 6.95876256e-02 6.95876256e-02</_>
    <_>
      4.09836024e-02 1.10655732e-01 1.18852451e-01 3.68852429e-02
      9.01639313e-02 2.86885239e-02 1.14754096e-01 1.10655732e-01
      9.01639313e-02 4.91803251e-02 1.22950815e-01 8.60655680e-02</_>
    <_>
      7.86026195e-02 1.31004363e-01 7.86026195e-02 3.05676870e-02
      8.73362422e-02 6.55021816e-02 9.17030573e-02 6.55021816e-02
      8.29694346e-02 4.80349362e-02 1.04803495e-01 1.35371178e-01</_>
    <_>
      5.51470593e-02 1.54411763e-01 6.98529407e-02 3.30882370e-02
      8.82352963e-02 5.51470593e-02 1.10294119e-01 9.92647037e-02
      2.57352944e-02 6.25000000e-02 1.21323533e-01 1.25000000e-01</_>
    <_>
      5.96330240e-02 1.28440365e-01 1.33027524e-01 1.83486231e-02
      8.25688019e-02 9.63302702e-02 1.51376143e-01 6.88073337e-02
      7.33944923e-02 9.17431116e-02 5.04587144e-02 4.58715558e-02</_>
    <_>
      6.56565651e-02 8.33333358e-02 9.84848514e-02 1.11111112e-01
      1.28787875e-01 1.38888896e-01 9.09090936e-02 3.53535339e-02
      7.57575780e-02 3.53535339e-02 5.05050495e-02 8.58585835e-02</_>
    <_>
      7.55813941e-02 7.55813941e-02 9.30232555e-02 3.48837227e-02
      8.72092992e-02 1.10465117e-01 1.97674423e-01 8.13953504e-02
      5.23255803e-02 7.55813941e-02 3.48837227e-02 8.13953504e-02</_>
    <_>
      9.09090936e-02 1.00649349e-01 1.46103889e-01 3.57142873e-02
      9.09090936e-02 8.44155848e-02 1.16883114e-01 7.79220760e-02
      6.81818202e-02 6.16883114e-02 5.84415570e-02 6.81818202e-02</_>
    <_>
      8.37209299e-02 7.90697634e-02 1.86046511e-01 4.65116277e-02
      6.97674453e-02 1.06976748e-01 1.44186050e-01 6.04651161e-02
      2.79069766e-02 7.90697634e-02 5.11627905e-02 6.51162788e-02</_>
    <_>
      9.86547172e-02 6.27802759e-02 1.16591930e-01 1.34529155e-02
      9.86547172e-02 9.86547172e-02 1.43497765e-01 4.93273586e-02
      8.07174891e-02 7.17488825e-02 9.86547172e-02 6.72645792e-02</_>
    <_>
      1.79669037e-01 9.45626497e-02 4.25531901e-02 2.55319148e-01
      7.09219873e-02 9.21985805e-02 7.56501183e-02 4.49172594e-02
      3.54609936e-02 1.18203312e-02 4.96453904e-02 4.72813249e-02</_>
    <_>
      6.09756075e-02 5.69105670e-02 2.27642268e-01 2.03252025e-02
      8.94308910e-02 6.09756075e-02 1.38211370e-01 8.94308910e-02
      4.06504050e-02 8.94308910e-02 6.50406480e-02 6.09756075e-02</_>
    <_>
      4.48430516e-02 5.82959652e-02 1.79372206e-01 4.93273586e-02
      8.96861032e-02 8.52017999e-02 1.74887896e-01 8.07174891e-02
      3.58744413e-02 7.62331858e-02 5.38116619e-02 7.17488825e-02</_>
    <_>
      4.01606411e-02 7.63052180e-02 7.22891539e-02 5.62248975e-02
      1.36546180e-01 1.36546180e-01 1.16465859e-01 4.41767052e-02
      8.03212821e-02 5.62248975e-02 1.08433731e-01 7.63052180e-02</_>
    <_>
      4.10256423e-02 6.66666701e-02 1.33333340e-01 6.66666701e-02
      1.17948718e-01 8.71794894e-02 1.02564104e-01 6.15384653e-02
      7.69230798e-02 6.66666701e-02 1.07692309e-01 7.17948750e-02</_>
    <_>
      2.75862068e-02 6.89655170e-02 4.13793102e-02 8.96551758e-02
      1.10344827e-01 1.55172408e-01 1.62068963e-01 6.20689653e-02
      4.48275879e-02 1.10344827e-01 6.55172393e-02 6.20689653e-02</_>
    <_>
      4.19161692e-02 6.58682659e-02 9.58083868e-02 8.98203626e-02
      1.25748515e-01 1.25748515e-01 1.31736532e-01 5.98802418e-02
      5.38922176e-02 4.79041934e-02 8.38323385e-02 7.78443143e-02</_>
    <_>
      5.33333346e-02 7.33333379e-02 1.80000007e-01 7.33333379e-02
      1.06666669e-01 7.99999982e-02 1.06666669e-01 7.99999982e-02
      3.99999991e-02 7.33333379e-02 7.99999982e-02 5.33333346e-02</_>
    <_>
      4.13223132e-02 7.43801594e-02 3.30578499e-02 1.03305779e-01
      1.07438013e-01 1.44628093e-01 1.07438013e-01 7.02479333e-02
      3.30578499e-02 1.40495867e-01 7.85123929e-02 6.61156997e-02</_>
    <_>
      5.68181835e-02 2.65151523e-02 9.09090936e-02 6.43939376e-02
      1.06060609e-01 1.17424250e-01 1.13636367e-01 7.57575780e-02
      7.95454532e-02 6.06060624e-02 9.84848514e-02 1.09848484e-01</_>
    <_>
      4.67289686e-02 8.87850448e-02 1.02803737e-01 3.27102803e-02
      9.81308371e-02 9.81308371e-02 1.26168221e-01 6.07476607e-02
      4.67289686e-02 6.54205605e-02 8.87850448e-02 1.44859806e-01</_>
    <_>
      8.49858373e-02 2.26628892e-02 1.98300276e-02 1.67138815e-01
      1.58640221e-01 1.55807361e-01 1.38810202e-01 5.09915017e-02
      1.13314446e-02 9.91501436e-02 4.53257784e-02 4.53257784e-02</_>
    <_>
      4.36681211e-02 6.11353740e-02 1.17903933e-01 4.36681211e-02
      1.09170310e-01 1.39737993e-01 1.04803495e-01 6.11353740e-02
      3.93013097e-02 1.04803495e-01 8.73362422e-02 8.73362422e-02</_>
    <_>
      6.61764741e-02 5.88235296e-02 1.61764711e-01 1.17647059e-01
      1.17647059e-01 1.47058830e-01 1.10294119e-01 4.41176482e-02
      2.94117648e-02 3.67647074e-02 5.88235296e-02 5.14705889e-02</_>
    <_>
      9.90099013e-02 7.92079195e-02 9.40594077e-02 1.18811876e-01
      8.41584131e-02 5.44554442e-02 1.18811876e-01 4.95049506e-02
      1.33663371e-01 5.94059378e-02 5.44554442e-02 5.44554442e-02</_>
    <_>
      6.79611638e-02 3.88349518e-02 1.16504855e-01 9.70873833e-02
      1.45631075e-01 8.73786435e-02 9.70873833e-02 6.79611638e-02
      8.73786435e-02 8.73786435e-02 7.76699036e-02 2.91262139e-02</_>
    <_>
      9.54198465e-02 5.72519079e-02 1.87022895e-01 4.19847332e-02
      9.16030556e-02 1.25954196e-01 1.18320614e-01 2.29007639e-02
      4.96183224e-02 7.25190863e-02 7.25190863e-02 6.48854971e-02</_>
    <_>
      1.91780820e-01 4.79452051e-02 7.87671208e-02 1.47260278e-01
      7.19178095e-02 9.58904102e-02 9.24657509e-02 4.45205495e-02
      6.50684908e-02 4.79452051e-02 5.82191795e-02 5.82191795e-02</_>
    <_>
      1.66666672e-01 6.53594807e-02 1.53594777e-01 1.33986935e-01
      6.53594807e-02 7.84313753e-02 8.82352963e-02 3.59477140e-02
      4.24836613e-02 5.22875823e-02 6.86274543e-02 4.90196086e-02</_>
    <_>
      2.66846359e-01 5.39083555e-02 2.69541778e-02 2.72237182e-01
      7.27762803e-02 5.92991896e-02 4.04312648e-02 3.77358496e-02
      1.34770889e-02 3.50404307e-02 6.19946085e-02 5.92991896e-02</_>
    <_>
      9.64467004e-02 7.61421323e-02 1.72588825e-01 9.13705528e-02
      9.64467004e-02 8.12182724e-02 8.12182724e-02 8.12182724e-02
      5.07614203e-02 7.61421323e-02 6.59898445e-02 3.04568522e-02</_>
    <_>
      9.01960805e-02 9.80392247e-02 5.49019650e-02 5.09803966e-02
      1.17647067e-01 1.37254909e-01 1.09803930e-01 5.09803966e-02
      4.31372561e-02 5.09803966e-02 9.41176564e-02 1.01960793e-01</_>
    <_>
      4.91803251e-02 4.91803251e-02 2.56830603e-01 8.19672123e-02
      7.10382462e-02 7.65027329e-02 7.10382462e-02 1.14754096e-01
      4.91803251e-02 4.91803251e-02 8.74316916e-02 4.37158458e-02</_>
    <_>
      2.62798637e-01 5.11945374e-02 1.12627983e-01 2.21842989e-01
      5.46075068e-02 4.09556292e-02 2.73037534e-02 3.41296904e-02
      7.16723502e-02 3.07167228e-02 3.07167228e-02 6.14334457e-02</_>
    <_>
      9.88372117e-02 5.81395328e-02 4.06976752e-02 1.10465117e-01
      1.51162788e-01 1.39534891e-01 1.04651161e-01 6.39534891e-02
      2.32558139e-02 9.88372117e-02 4.65116277e-02 6.39534891e-02</_>
    <_>
      6.89655170e-02 6.89655170e-02 3.27586204e-01 2.58620679e-02
      1.03448272e-01 1.03448272e-01 1.20689653e-01 6.03448264e-02
      4.31034490e-02 1.72413792e-02 4.31034490e-02 1.72413792e-02</_>
    <_>
      1.03448272e-01 5.36398441e-02 1.07279688e-01 1.72413796e-01
      1.07279688e-01 1.18773945e-01 1.11111112e-01 5.36398441e-02
      4.21455912e-02 3.83141749e-02 5.36398441e-02 3.83141749e-02</_>
    <_>
      5.52486219e-02 8.28729346e-02 1.04972377e-01 7.73480684e-02
      1.04972377e-01 1.71270728e-01 1.10497244e-01 4.97237593e-02
      3.86740342e-02 1.04972377e-01 4.97237593e-02 4.97237593e-02</_>
    <_>
      1.69491526e-02 1.69491526e-02 2.88135588e-01 1.69491529e-01
      1.01694912e-01 1.01694912e-01 1.86440676e-01 3.38983051e-02
      1.69491526e-02 0. 6.77966103e-02 0.</_>
    <_>
      8.97959173e-02 5.71428537e-02 6.53061196e-02 6.93877488e-02
      1.06122442e-01 1.38775498e-01 6.93877488e-02 9.79591757e-02
      5.30612208e-02 1.02040812e-01 7.34693855e-02 7.75510147e-02</_>
    <_>
      8.40000063e-02 6.40000030e-02 6.40000030e-02 8.40000063e-02
      8.80000070e-02 1.20000005e-01 7.20000044e-02 8.00000057e-02
      5.60000017e-02 8.80000070e-02 1.08000003e-01 9.20000076e-02</_>
    <_>
      8.52017999e-02 9.41704065e-02 3.13901380e-02 4.93273586e-02
      8.52017999e-02 8.96861032e-02 7.17488825e-02 6.72645792e-02
      5.82959652e-02 1.07623324e-01 1.34529158e-01 1.25560552e-01</_>
    <_>
      5.22088334e-02 4.81927693e-02 1.36546180e-01 9.63855386e-02
      8.03212821e-02 1.40562236e-01 8.43373463e-02 6.82730898e-02
      4.41767052e-02 1.04417667e-01 5.22088334e-02 9.23694745e-02</_>
    <_>
      1.15819208e-01 1.01694912e-01 1.35593221e-01 1.27118647e-01
      6.49717525e-02 6.77966103e-02 4.80225980e-02 5.08474559e-02
      6.77966103e-02 8.47457647e-02 6.21468946e-02 7.34463260e-02</_>
    <_>
      5.71428575e-02 9.71428528e-02 4.57142852e-02 4.57142852e-02
      8.57142881e-02 9.71428528e-02 5.71428575e-02 9.71428528e-02
      5.71428575e-02 1.42857134e-01 1.31428570e-01 8.57142881e-02</_>
    <_>
      9.43396166e-02 1.32075474e-01 4.08805013e-02 7.54716992e-02
      5.97484261e-02 6.91823885e-02 5.97484261e-02 5.34591191e-02
      4.08805013e-02 8.49056542e-02 1.25786155e-01 1.63522005e-01</_>
    <_>
      5.26315756e-02 1.10047840e-01 4.78468873e-02 7.65550211e-02
      7.65550211e-02 9.09090862e-02 7.65550211e-02 4.78468873e-02
      4.30621989e-02 1.14832535e-01 1.10047840e-01 1.53110042e-01</_>
    <_>
      9.91501436e-02 1.30311608e-01 5.38243614e-02 8.21529701e-02
      7.64872506e-02 7.08215311e-02 7.36543909e-02 5.66572249e-02
      3.39943320e-02 5.94900846e-02 1.24645889e-01 1.38810202e-01</_></support_vectors>
  <decision_functions>
    <_>
      <sv_count>11</sv_count>
      <rho>5.3527126962581340e-01</rho>
      <alpha>
        50. 50. 50. 50. 50. -3.9788666744513932e+01
        -4.2479953036228579e+01 -50. -50. -50. -1.7731380219257488e+01</alpha>
      <index>
        0 1 3 4 5 7 8 10 12 13 14</index></_>
    <_>
      <sv_count>13</sv_count>
      <rho>-3.5651765386253514e-01</rho>
      <alpha>
        50. 1.2798447043846430e+01 50. 50. 50. 3.8983609670944364e+00
        -1.8920507283227348e+00 -50. -50. -2.7263195632905464e+00
        -1.2078437719327582e+01 -50. -50.</alpha>
      <index>
        0 1 3 4 5 6 16 17 20 21 22 23 27</index></_>
    <_>
      <sv_count>13</sv_count>
      <rho>3.6753384039250364e-01</rho>
      <alpha>
        50. 50. 50. 50. 3.0885112414997735e+01 -50.
        -4.5174672376665661e+01 -3.8580544193844766e+00 -50. -50.
        -2.1678322456218382e+01 -8.3580717859167901e+00
        -1.8159913768123890e+00</alpha>
      <index>
        0 1 2 3 4 30 31 32 33 34 35 36 37</index></_>
    <_>
      <sv_count>14</sv_count>
      <rho>-6.8588333314026384e-01</rho>
      <alpha>
        50. 50. 50. 3.0483951165795155e+01 7.2230953638698496e+00 50.
        50. -3.3214534681727571e+01 -50. -4.0895203552942640e+01
        -1.3597308294994789e+01 -50. -50. -50.</alpha>
      <index>
        0 1 2 3 4 5 6 42 43 44 45 46 48 50</index></_>
    <_>
      <sv_count>18</sv_count>
      <rho>-1.4410377448041349e+00</rho>
      <alpha>
        50. 50. 4.8357903400701190e+01 50. 9.7577173491382674e-01 50.
        50. 50. 50. -4.5243209096477429e+01 -2.2820561999352183e+01 -50.
        -50. -50. -50. -50. -50. -3.1269904039785427e+01</alpha>
      <index>
        7 8 9 10 11 12 13 14 15 17 18 19 20 23 25 26 27 28</index></_>
    <_>
      <sv_count>18</sv_count>
      <rho>7.8461785655820671e-01</rho>
      <alpha>
        4.9148113126427667e+01 50. 50. 50. 50. 50. 50. 50. -50. -50.
        -4.3949413893170481e+00 -50. -50. -4.4534382493261631e+01 -50.
        -50. -50. -2.1878924384900617e-01</alpha>
      <index>
        7 8 10 11 12 13 14 15 29 30 31 33 34 35 37 38 40 41</index></_>
    <_>
      <sv_count>12</sv_count>
      <rho>-1.1139831439594361e+00</rho>
      <alpha>
        1.9311863935925977e+01 50. 50. 1.4980807217333739e+01 50. 50.
        9.5467603884083374e+00 -50. -4.3839431541668048e+01 -50. -50.
        -50.</alpha>
      <index>
        7 8 10 11 12 13 14 42 43 45 46 50</index></_>
    <_>
      <sv_count>18</sv_count>
      <rho>9.8052393599233933e-01</rho>
      <alpha>
        50. 4.9137443794871373e+01 50. 6.6568217979943745e+00 50. 50.
        50. 50. 50. -50. -3.2544117549759818e+01 -50. -50. -50. -50.
        -50. -50. -2.3250148043105913e+01</alpha>
      <index>
        17 19 20 23 24 25 26 27 28 29 30 33 34 35 37 39 40 41</index></_>
    <_>
      <sv_count>15</sv_count>
      <rho>-3.8080622073327292e-01</rho>
      <alpha>
        2.8513932170150699e+01 1.1920236945816969e+01 50. 50. 50.
        1.4807168485367333e+01 50. 50. -50. -50. -4.6936592530913806e+01
        -50. -50. -8.3047450704211681e+00 -50.</alpha>
      <index>
        17 20 21 22 23 24 25 27 42 43 44 45 46 47 49</index></_>
    <_>
      <sv_count>14</sv_count>
      <rho>-1.7906382632082127e+00</rho>
      <alpha>
        2.8342750019564619e+01 1.2451375072214624e+01
        8.9070818485138687e+00 50. 4.9897290610600486e+01
        2.6970719374373551e+00 50. 50. -50. -50. -50. -50.
        -2.2955694883309610e+00 -50.</alpha>
      <index>
        30 32 33 34 35 36 37 40 42 43 45 46 47 50</index></_></decision_functions></opencv_ml_svm>
</opencv_storage>
